digraph Tree {
node [shape=box] ;
0 [label="ap_hi <= 129.5\ngini = 0.5\nsamples = 70000\nvalue = [35021, 34979]"] ;
1 [label="age <= 19960.5\ngini = 0.434\nsamples = 41326\nvalue = [28160, 13166]"] ;
0 -> 1 [labeldistance=2.5, labelangle=45, headlabel="True"] ;
2 [label="cholesterol <= 2.5\ngini = 0.364\nsamples = 25486\nvalue = [19395, 6091]"] ;
1 -> 2 ;
3 [label="age <= 16099.5\ngini = 0.348\nsamples = 24401\nvalue = [18937, 5464]"] ;
2 -> 3 ;
4 [label="(...)"] ;
3 -> 4 ;
2703 [label="(...)"] ;
3 -> 2703 ;
12976 [label="gluc <= 2.5\ngini = 0.488\nsamples = 1085\nvalue = [458, 627]"] ;
2 -> 12976 ;
12977 [label="(...)"] ;
12976 -> 12977 ;
13222 [label="(...)"] ;
12976 -> 13222 ;
13627 [label="cholesterol <= 2.5\ngini = 0.494\nsamples = 15840\nvalue = [8765, 7075]"] ;
1 -> 13627 ;
13628 [label="age <= 22218.0\ngini = 0.486\nsamples = 14195\nvalue = [8274, 5921]"] ;
13627 -> 13628 ;
13629 [label="(...)"] ;
13628 -> 13629 ;
20722 [label="(...)"] ;
13628 -> 20722 ;
23309 [label="weight <= 68.75\ngini = 0.419\nsamples = 1645\nvalue = [491, 1154]"] ;
13627 -> 23309 ;
23310 [label="(...)"] ;
23309 -> 23310 ;
23719 [label="(...)"] ;
23309 -> 23719 ;
24266 [label="ap_hi <= 138.5\ngini = 0.364\nsamples = 28674\nvalue = [6861, 21813]"] ;
0 -> 24266 [labeldistance=2.5, labelangle=-45, headlabel="False"] ;
24267 [label="cholesterol <= 2.5\ngini = 0.481\nsamples = 9263\nvalue = [3719, 5544]"] ;
24266 -> 24267 ;
24268 [label="age <= 21739.5\ngini = 0.494\nsamples = 7524\nvalue = [3365, 4159]"] ;
24267 -> 24268 ;
24269 [label="(...)"] ;
24268 -> 24269 ;
28016 [label="(...)"] ;
24268 -> 28016 ;
29323 [label="gluc <= 2.5\ngini = 0.324\nsamples = 1739\nvalue = [354, 1385]"] ;
24267 -> 29323 ;
29324 [label="(...)"] ;
29323 -> 29324 ;
29815 [label="(...)"] ;
29323 -> 29815 ;
30184 [label="ap_hi <= 149.5\ngini = 0.271\nsamples = 19411\nvalue = [3142, 16269]"] ;
24266 -> 30184 ;
30185 [label="gluc <= 2.5\ngini = 0.301\nsamples = 9849\nvalue = [1817, 8032]"] ;
30184 -> 30185 ;
30186 [label="(...)"] ;
30185 -> 30186 ;
34319 [label="(...)"] ;
30185 -> 34319 ;
34876 [label="ap_lo <= 68.5\ngini = 0.239\nsamples = 9562\nvalue = [1325, 8237]"] ;
30184 -> 34876 ;
34877 [label="(...)"] ;
34876 -> 34877 ;
34936 [label="(...)"] ;
34876 -> 34936 ;
}