digraph Tree {
node [shape=box] ;
0 [label="ap_hi <= 129.5\ngini = 0.5\nsamples = 70000\nvalue = [35021, 34979]"] ;
1 [label="age <= 19960.5\ngini = 0.434\nsamples = 41326\nvalue = [28160, 13166]"] ;
0 -> 1 [labeldistance=2.5, labelangle=45, headlabel="True"] ;
2 [label="cholesterol <= 2.5\ngini = 0.364\nsamples = 25486\nvalue = [19395, 6091]"] ;
1 -> 2 ;
3 [label="age <= 16099.5\ngini = 0.348\nsamples = 24401\nvalue = [18937, 5464]"] ;
2 -> 3 ;
4 [label="(...)"] ;
3 -> 4 ;
2703 [label="(...)"] ;
3 -> 2703 ;
12970 [label="gluc <= 2.5\ngini = 0.488\nsamples = 1085\nvalue = [458, 627]"] ;
2 -> 12970 ;
12971 [label="(...)"] ;
12970 -> 12971 ;
13218 [label="(...)"] ;
12970 -> 13218 ;
13623 [label="cholesterol <= 2.5\ngini = 0.494\nsamples = 15840\nvalue = [8765, 7075]"] ;
1 -> 13623 ;
13624 [label="age <= 22218.0\ngini = 0.486\nsamples = 14195\nvalue = [8274, 5921]"] ;
13623 -> 13624 ;
13625 [label="(...)"] ;
13624 -> 13625 ;
20772 [label="(...)"] ;
13624 -> 20772 ;
23365 [label="weight <= 68.75\ngini = 0.419\nsamples = 1645\nvalue = [491, 1154]"] ;
13623 -> 23365 ;
23366 [label="(...)"] ;
23365 -> 23366 ;
23781 [label="(...)"] ;
23365 -> 23781 ;
24328 [label="ap_hi <= 138.5\ngini = 0.364\nsamples = 28674\nvalue = [6861, 21813]"] ;
0 -> 24328 [labeldistance=2.5, labelangle=-45, headlabel="False"] ;
24329 [label="cholesterol <= 2.5\ngini = 0.481\nsamples = 9263\nvalue = [3719, 5544]"] ;
24328 -> 24329 ;
24330 [label="age <= 21739.5\ngini = 0.494\nsamples = 7524\nvalue = [3365, 4159]"] ;
24329 -> 24330 ;
24331 [label="(...)"] ;
24330 -> 24331 ;
28090 [label="(...)"] ;
24330 -> 28090 ;
29391 [label="gluc <= 2.5\ngini = 0.324\nsamples = 1739\nvalue = [354, 1385]"] ;
24329 -> 29391 ;
29392 [label="(...)"] ;
29391 -> 29392 ;
29885 [label="(...)"] ;
29391 -> 29885 ;
30252 [label="ap_hi <= 149.5\ngini = 0.271\nsamples = 19411\nvalue = [3142, 16269]"] ;
24328 -> 30252 ;
30253 [label="gluc <= 2.5\ngini = 0.301\nsamples = 9849\nvalue = [1817, 8032]"] ;
30252 -> 30253 ;
30254 [label="(...)"] ;
30253 -> 30254 ;
34379 [label="(...)"] ;
30253 -> 34379 ;
34928 [label="ap_lo <= 68.5\ngini = 0.239\nsamples = 9562\nvalue = [1325, 8237]"] ;
30252 -> 34928 ;
34929 [label="(...)"] ;
34928 -> 34929 ;
34986 [label="(...)"] ;
34928 -> 34986 ;
}