digraph Tree {
node [shape=box] ;
0 [label="ap_hi <= 129.5\ngini = 0.5\nsamples = 70000\nvalue = [35021, 34979]"] ;
1 [label="age <= 19960.5\ngini = 0.434\nsamples = 41326\nvalue = [28160, 13166]"] ;
0 -> 1 [labeldistance=2.5, labelangle=45, headlabel="True"] ;
2 [label="cholesterol <= 2.5\ngini = 0.364\nsamples = 25486\nvalue = [19395, 6091]"] ;
1 -> 2 ;
3 [label="age <= 16099.5\ngini = 0.348\nsamples = 24401\nvalue = [18937, 5464]"] ;
2 -> 3 ;
4 [label="cholesterol <= 1.5\ngini = 0.241\nsamples = 6733\nvalue = [5788, 945]"] ;
3 -> 4 ;
5 [label="(...)"] ;
4 -> 5 ;
2346 [label="(...)"] ;
4 -> 2346 ;
2699 [label="ap_hi <= 119.5\ngini = 0.381\nsamples = 17668\nvalue = [13149, 4519]"] ;
3 -> 2699 ;
2700 [label="(...)"] ;
2699 -> 2700 ;
5451 [label="(...)"] ;
2699 -> 5451 ;
12984 [label="gluc <= 2.5\ngini = 0.488\nsamples = 1085\nvalue = [458, 627]"] ;
2 -> 12984 ;
12985 [label="age <= 15161.5\ngini = 0.381\nsamples = 465\nvalue = [119, 346]"] ;
12984 -> 12985 ;
12986 [label="(...)"] ;
12985 -> 12986 ;
13001 [label="(...)"] ;
12985 -> 13001 ;
13230 [label="weight <= 80.5\ngini = 0.496\nsamples = 620\nvalue = [339, 281]"] ;
12984 -> 13230 ;
13231 [label="(...)"] ;
13230 -> 13231 ;
13564 [label="(...)"] ;
13230 -> 13564 ;
13635 [label="cholesterol <= 2.5\ngini = 0.494\nsamples = 15840\nvalue = [8765, 7075]"] ;
1 -> 13635 ;
13636 [label="age <= 22218.0\ngini = 0.486\nsamples = 14195\nvalue = [8274, 5921]"] ;
13635 -> 13636 ;
13637 [label="ap_hi <= 118.5\ngini = 0.47\nsamples = 10484\nvalue = [6521, 3963]"] ;
13636 -> 13637 ;
13638 [label="(...)"] ;
13637 -> 13638 ;
15157 [label="(...)"] ;
13637 -> 15157 ;
20786 [label="active <= 0.5\ngini = 0.498\nsamples = 3711\nvalue = [1753, 1958]"] ;
13636 -> 20786 ;
20787 [label="(...)"] ;
20786 -> 20787 ;
21298 [label="(...)"] ;
20786 -> 21298 ;
23373 [label="weight <= 68.75\ngini = 0.419\nsamples = 1645\nvalue = [491, 1154]"] ;
13635 -> 23373 ;
23374 [label="age <= 22414.0\ngini = 0.474\nsamples = 607\nvalue = [234, 373]"] ;
23373 -> 23374 ;
23375 [label="(...)"] ;
23374 -> 23375 ;
23686 [label="(...)"] ;
23374 -> 23686 ;
23787 [label="height <= 185.5\ngini = 0.373\nsamples = 1038\nvalue = [257, 781]"] ;
23373 -> 23787 ;
23788 [label="(...)"] ;
23787 -> 23788 ;
24329 [label="(...)"] ;
23787 -> 24329 ;
24330 [label="ap_hi <= 138.5\ngini = 0.364\nsamples = 28674\nvalue = [6861, 21813]"] ;
0 -> 24330 [labeldistance=2.5, labelangle=-45, headlabel="False"] ;
24331 [label="cholesterol <= 2.5\ngini = 0.481\nsamples = 9263\nvalue = [3719, 5544]"] ;
24330 -> 24331 ;
24332 [label="age <= 21739.5\ngini = 0.494\nsamples = 7524\nvalue = [3365, 4159]"] ;
24331 -> 24332 ;
24333 [label="ap_lo <= 89.5\ngini = 0.499\nsamples = 5502\nvalue = [2629, 2873]"] ;
24332 -> 24333 ;
24334 [label="(...)"] ;
24333 -> 24334 ;
26569 [label="(...)"] ;
24333 -> 26569 ;
28088 [label="smoke <= 0.5\ngini = 0.463\nsamples = 2022\nvalue = [736, 1286]"] ;
24332 -> 28088 ;
28089 [label="(...)"] ;
28088 -> 28089 ;
29272 [label="(...)"] ;
28088 -> 29272 ;
29389 [label="gluc <= 2.5\ngini = 0.324\nsamples = 1739\nvalue = [354, 1385]"] ;
24331 -> 29389 ;
29390 [label="smoke <= 0.5\ngini = 0.28\nsamples = 1050\nvalue = [177, 873]"] ;
29389 -> 29390 ;
29391 [label="(...)"] ;
29390 -> 29391 ;
29830 [label="(...)"] ;
29390 -> 29830 ;
29883 [label="height <= 157.5\ngini = 0.382\nsamples = 689\nvalue = [177, 512]"] ;
29389 -> 29883 ;
29884 [label="(...)"] ;
29883 -> 29884 ;
29949 [label="(...)"] ;
29883 -> 29949 ;
30250 [label="ap_hi <= 149.5\ngini = 0.271\nsamples = 19411\nvalue = [3142, 16269]"] ;
24330 -> 30250 ;
30251 [label="gluc <= 2.5\ngini = 0.301\nsamples = 9849\nvalue = [1817, 8032]"] ;
30250 -> 30251 ;
30252 [label="height <= 147.5\ngini = 0.294\nsamples = 8817\nvalue = [1578, 7239]"] ;
30251 -> 30252 ;
30253 [label="(...)"] ;
30252 -> 30253 ;
30328 [label="(...)"] ;
30252 -> 30328 ;
34369 [label="age <= 22854.0\ngini = 0.356\nsamples = 1032\nvalue = [239, 793]"] ;
30251 -> 34369 ;
34370 [label="(...)"] ;
34369 -> 34370 ;
34873 [label="(...)"] ;
34369 -> 34873 ;
34924 [label="ap_lo <= 68.5\ngini = 0.239\nsamples = 9562\nvalue = [1325, 8237]"] ;
30250 -> 34924 ;
34925 [label="ap_hi <= 252.0\ngini = 0.461\nsamples = 89\nvalue = [32, 57]"] ;
34924 -> 34925 ;
34926 [label="(...)"] ;
34925 -> 34926 ;
34981 [label="(...)"] ;
34925 -> 34981 ;
34984 [label="weight <= 52.5\ngini = 0.236\nsamples = 9473\nvalue = [1293, 8180]"] ;
34924 -> 34984 ;
34985 [label="(...)"] ;
34984 -> 34985 ;
35060 [label="(...)"] ;
34984 -> 35060 ;
}